<?xml version="1.0"?>
<opencv_storage>
    <cascade>
        <stageType>BOOST</stageType>
        <featureType>HAAR</featureType>
        <height>24</height>
        <width>24</width>
        <stageParams>
            <boostType>GAB</boostType>
            <minHitRate>9.9900001287460327e-01</minHitRate>
            <maxFalseAlarm>4.0000000596046448e-01</maxFalseAlarm>
            <weightTrimRate>9.4999999999999996e-01</weightTrimRate>
            <maxDepth>1</maxDepth>
            <maxWeakCount>100</maxWeakCount></stageParams>
        <featureParams>
            <maxCatCount>0</maxCatCount>
            <featSize>1</featSize>
            <mode>BASIC</mode></featureParams>
        <stageNum>3</stageNum>
        <stages>
            <!-- stage 0 -->
            <_>
                <maxWeakCount>5</maxWeakCount>
                <stageThreshold>-1.3356958627700806e+00</stageThreshold>
                <weakClassifiers>
                    <_>
                        <internalNodes>
                            0 -1 12 -1.0693339630961418e-02</internalNodes>
                        <leafValues>
                            5.7723575830459595e-01 -8.3365571498870850e-01</leafValues></_>
                    <_>
                        <internalNodes>
                            0 -1 15 -2.1676838397979736e-02</internalNodes>
                        <leafValues>
                            -8.3672082424163818e-01 3.2995843887329102e-01</leafValues></_>
                    <_>
                        <internalNodes>
                            0 -1 5 3.3499155193567276e-02</internalNodes>
                        <leafValues>
                            -5.8874237537384033e-01 4.2484620213508606e-01</leafValues></_>
                    <_>
                        <internalNodes>
                            0 -1 1 1.7058558296412230e-03</internalNodes>
                        <leafValues>
                            -4.6427300572395325e-01 6.2525427341461182e-01</leafValues></_>
                    <_>
                        <internalNodes>
                            0 -1 18 -4.3767505884170532e-01</internalNodes>
                        <leafValues>
                            -9.6260613203048706e-01 2.9816883802413940e-01</leafValues></_></weakClassifiers></_>
            <!-- stage 1 -->
            <_>
                <maxWeakCount>8</maxWeakCount>
                <stageThreshold>-1.6763843297958374e+00</stageThreshold>
                <weakClassifiers>
                    <_>
                        <internalNodes>
                            0 -1 7 6.5250340849161148e-03</internalNodes>
                        <leafValues>
                            -8.3592939376831055e-01 2.6813879609107971e-01</leafValues></_>
                    <_>
                        <internalNodes>
                            0 -1 9 3.9281278848648071e-02</internalNodes>
                        <leafValues>
                            -7.1638888120651245e-01 3.9100608229637146e-01</leafValues></_>
                    <_>
                        <internalNodes>
                            0 -1 22 -4.2080543935298920e-03</internalNodes>
                        <leafValues>
                            4.8309561610221863e-01 -4.6138617396354675e-01</leafValues></_>
                    <_>
                        <internalNodes>
                            0 -1 2 3.0464329756796360e-03</internalNodes>
                        <leafValues>
                            -3.4602776169776917e-01 5.8388876914978027e-01</leafValues></_>
                    <_>
                        <internalNodes>
                            0 -1 19 -6.0132168233394623e-02</internalNodes>
                        <leafValues>
                            6.6123712062835693e-01 -2.4786123633384705e-01</leafValues></_>
                    <_>
                        <internalNodes>
                            0 -1 8 -2.3884568363428116e-03</internalNodes>
                        <leafValues>
                            6.6574442386627197e-01 -2.1535176038742065e-01</leafValues></_>
                    <_>
                        <internalNodes>
                            0 -1 13 -6.2407860532402992e-03</internalNodes>
                        <leafValues>
                            4.6063432097434998e-01 -4.0637546777725220e-01</leafValues></_>
                    <_>
                        <internalNodes>
                            0 -1 23 -2.6412012521177530e-03</internalNodes>
                        <leafValues>
                            6.8092697858810425e-01 -2.2317177057266235e-01</leafValues></_></weakClassifiers></_>
            <!-- stage 2 -->
            <_>
                <maxWeakCount>11</maxWeakCount>
                <stageThreshold>-1.5211423635482788e+00</stageThreshold>
                <weakClassifiers>
                    <_>
                        <internalNodes>
                            0 -1 17 -2.2051776759326458e-03</internalNodes>
                        <leafValues>
                            -7.6296293735504150e-01 5.1999998092651367e-01</leafValues></_>
                    <_>
                        <internalNodes>
                            0 -1 11 2.3889483883976936e-02</internalNodes>
                        <leafValues>
                            -6.6759967803955078e-01 2.1138747036457062e-01</leafValues></_>
                    <_>
                        <internalNodes>
                            0 -1 16 -3.9483215659856796e-03</internalNodes>
                        <leafValues>
                            5.6734067201614380e-01 -3.7114915251731873e-01</leafValues></_>
                    <_>
                        <internalNodes>
                            0 -1 14 -3.7735913065262139e-04</internalNodes>
                        <leafValues>
                            5.6359875202178955e-01 -2.8792151808738708e-01</leafValues></_>
                    <_>
                        <internalNodes>
                            0 -1 6 -1.3904224615544081e-03</internalNodes>
                        <leafValues>
                            6.1784183979034424e-01 -2.6509943604469299e-01</leafValues></_>
                    <_>
                        <internalNodes>
                            0 -1 0 -2.6922646164894104e-01</internalNodes>
                        <leafValues>
                            -1. 1.8436317145824432e-01</leafValues></_>
                    <_>
                        <internalNodes>
                            0 -1 3 -6.7551503889262676e-03</internalNodes>
                        <leafValues>
                            4.5380330085754395e-01 -3.9609768986701965e-01</leafValues></_>
                    <_>
                        <internalNodes>
                            0 -1 4 -1.8297603726387024e-01</internalNodes>
                        <leafValues>
                            -7.6761764287948608e-01 2.5381705164909363e-01</leafValues></_>
                    <_>
                        <internalNodes>
                            0 -1 10 -5.6615902576595545e-04</internalNodes>
                        <leafValues>
                            6.5172237157821655e-01 -3.0669417977333069e-01</leafValues></_>
                    <_>
                        <internalNodes>
                            0 -1 21 2.4656485766172409e-03</internalNodes>
                        <leafValues>
                            -1.6932059824466705e-01 7.9192596673965454e-01</leafValues></_>
                    <_>
                        <internalNodes>
                            0 -1 20 7.9303217353299260e-04</internalNodes>
                        <leafValues>
                            -2.6859393715858459e-01 5.5611509084701538e-01</leafValues></_></weakClassifiers></_></stages>
        <features>
            <_>
                <rects>
                    <_>
                        1 0 15 5 -1.</_>
                    <_>
                        6 0 5 5 2.</_></rects>
                <tilted>0</tilted></_>
            <_>
                <rects>
                    <_>
                        1 1 2 16 -1.</_>
                    <_>
                        1 1 1 8 2.</_>
                    <_>
                        2 9 1 8 2.</_></rects>
                <tilted>0</tilted></_>
            <_>
                <rects>
                    <_>
                        2 0 2 18 -1.</_>
                    <_>
                        2 0 1 9 2.</_>
                    <_>
                        3 9 1 9 2.</_></rects>
                <tilted>0</tilted></_>
            <_>
                <rects>
                    <_>
                        2 0 12 2 -1.</_>
                    <_>
                        2 1 12 1 2.</_></rects>
                <tilted>0</tilted></_>
            <_>
                <rects>
                    <_>
                        2 0 21 20 -1.</_>
                    <_>
                        2 10 21 10 2.</_></rects>
                <tilted>0</tilted></_>
            <_>
                <rects>
                    <_>
                        2 3 17 6 -1.</_>
                    <_>
                        2 6 17 3 2.</_></rects>
                <tilted>0</tilted></_>
            <_>
                <rects>
                    <_>
                        3 1 4 2 -1.</_>
                    <_>
                        3 1 2 1 2.</_>
                    <_>
                        5 2 2 1 2.</_></rects>
                <tilted>0</tilted></_>
            <_>
                <rects>
                    <_>
                        3 1 8 4 -1.</_>
                    <_>
                        3 1 4 2 2.</_>
                    <_>
                        7 3 4 2 2.</_></rects>
                <tilted>0</tilted></_>
            <_>
                <rects>
                    <_>
                        3 3 2 12 -1.</_>
                    <_>
                        3 3 1 6 2.</_>
                    <_>
                        4 9 1 6 2.</_></rects>
                <tilted>0</tilted></_>
            <_>
                <rects>
                    <_>
                        4 2 16 6 -1.</_>
                    <_>
                        4 5 16 3 2.</_></rects>
                <tilted>0</tilted></_>
            <_>
                <rects>
                    <_>
                        4 22 4 2 -1.</_>
                    <_>
                        4 22 2 1 2.</_>
                    <_>
                        6 23 2 1 2.</_></rects>
                <tilted>0</tilted></_>
            <_>
                <rects>
                    <_>
                        5 2 13 6 -1.</_>
                    <_>
                        5 5 13 3 2.</_></rects>
                <tilted>0</tilted></_>
            <_>
                <rects>
                    <_>
                        6 0 9 2 -1.</_>
                    <_>
                        6 1 9 1 2.</_></rects>
                <tilted>0</tilted></_>
            <_>
                <rects>
                    <_>
                        8 0 14 2 -1.</_>
                    <_>
                        8 1 14 1 2.</_></rects>
                <tilted>0</tilted></_>
            <_>
                <rects>
                    <_>
                        9 18 2 6 -1.</_>
                    <_>
                        10 18 1 6 2.</_></rects>
                <tilted>0</tilted></_>
            <_>
                <rects>
                    <_>
                        10 1 3 3 -1.</_>
                    <_>
                        11 1 1 3 2.</_></rects>
                <tilted>0</tilted></_>
            <_>
                <rects>
                    <_>
                        10 1 10 2 -1.</_>
                    <_>
                        10 1 5 1 2.</_>
                    <_>
                        15 2 5 1 2.</_></rects>
                <tilted>0</tilted></_>
            <_>
                <rects>
                    <_>
                        10 2 3 1 -1.</_>
                    <_>
                        11 2 1 1 2.</_></rects>
                <tilted>0</tilted></_>
            <_>
                <rects>
                    <_>
                        10 5 12 12 -1.</_>
                    <_>
                        10 9 12 4 2.</_></rects>
                <tilted>0</tilted></_>
            <_>
                <rects>
                    <_>
                        11 1 12 14 -1.</_>
                    <_>
                        11 1 6 7 2.</_>
                    <_>
                        17 8 6 7 2.</_></rects>
                <tilted>0</tilted></_>
            <_>
                <rects>
                    <_>
                        14 19 8 2 -1.</_>
                    <_>
                        14 19 4 1 2.</_>
                    <_>
                        18 20 4 1 2.</_></rects>
                <tilted>0</tilted></_>
            <_>
                <rects>
                    <_>
                        15 3 2 6 -1.</_>
                    <_>
                        15 3 1 3 2.</_>
                    <_>
                        16 6 1 3 2.</_></rects>
                <tilted>0</tilted></_>
            <_>
                <rects>
                    <_>
                        18 1 6 4 -1.</_>
                    <_>
                        18 3 6 2 2.</_></rects>
                <tilted>0</tilted></_>
            <_>
                <rects>
                    <_>
                        22 6 2 16 -1.</_>
                    <_>
                        22 6 1 8 2.</_>
                    <_>
                        23 14 1 8 2.</_></rects>
                <tilted>0</tilted></_></features></cascade>
</opencv_storage>