<?xml version="1.0"?>
<opencv_storage>
    <cascade>
        <stageType>BOOST</stageType>
        <featureType>HAAR</featureType>
        <height>24</height>
        <width>24</width>
        <stageParams>
            <boostType>GAB</boostType>
            <minHitRate>9.9900001287460327e-01</minHitRate>
            <maxFalseAlarm>4.0000000596046448e-01</maxFalseAlarm>
            <weightTrimRate>9.4999999999999996e-01</weightTrimRate>
            <maxDepth>1</maxDepth>
            <maxWeakCount>100</maxWeakCount></stageParams>
        <featureParams>
            <maxCatCount>0</maxCatCount>
            <featSize>1</featSize>
            <mode>BASIC</mode></featureParams>
        <stageNum>3</stageNum>
        <stages>
            <!-- stage 0 -->
            <_>
                <maxWeakCount>4</maxWeakCount>
                <stageThreshold>-1.9800406694412231e+00</stageThreshold>
                <weakClassifiers>
                    <_>
                        <internalNodes>
                            0 -1 9 -2.2098827175796032e-03</internalNodes>
                        <leafValues>
                            -9.1287511587142944e-01 6.4179104566574097e-01</leafValues></_>
                    <_>
                        <internalNodes>
                            0 -1 7 -1.0019614361226559e-02</internalNodes>
                        <leafValues>
                            5.4302144050598145e-01 -8.1311184167861938e-01</leafValues></_>
                    <_>
                        <internalNodes>
                            0 -1 11 -5.6183934211730957e-03</internalNodes>
                        <leafValues>
                            5.5634373426437378e-01 -6.3858366012573242e-01</leafValues></_>
                    <_>
                        <internalNodes>
                            0 -1 1 -4.6901933848857880e-02</internalNodes>
                        <leafValues>
                            -8.7986981868743896e-01 3.8452991843223572e-01</leafValues></_></weakClassifiers></_>
            <!-- stage 1 -->
            <_>
                <maxWeakCount>6</maxWeakCount>
                <stageThreshold>-1.5618985891342163e+00</stageThreshold>
                <weakClassifiers>
                    <_>
                        <internalNodes>
                            0 -1 2 1.9675476476550102e-02</internalNodes>
                        <leafValues>
                            -9.3265306949615479e-01 1.1666666716337204e-01</leafValues></_>
                    <_>
                        <internalNodes>
                            0 -1 5 1.8620309419929981e-03</internalNodes>
                        <leafValues>
                            -7.1468240022659302e-01 4.4030237197875977e-01</leafValues></_>
                    <_>
                        <internalNodes>
                            0 -1 3 -2.2307606413960457e-03</internalNodes>
                        <leafValues>
                            5.6292182207107544e-01 -5.4265683889389038e-01</leafValues></_>
                    <_>
                        <internalNodes>
                            0 -1 6 4.0858373045921326e-02</internalNodes>
                        <leafValues>
                            -5.8562654256820679e-01 5.1121562719345093e-01</leafValues></_>
                    <_>
                        <internalNodes>
                            0 -1 4 -7.8846421092748642e-04</internalNodes>
                        <leafValues>
                            5.7187092304229736e-01 -4.3293407559394836e-01</leafValues></_>
                    <_>
                        <internalNodes>
                            0 -1 12 -1.1921145021915436e-02</internalNodes>
                        <leafValues>
                            5.7915878295898438e-01 -4.6372935175895691e-01</leafValues></_></weakClassifiers></_>
            <!-- stage 2 -->
            <_>
                <maxWeakCount>4</maxWeakCount>
                <stageThreshold>-1.1411683559417725e+00</stageThreshold>
                <weakClassifiers>
                    <_>
                        <internalNodes>
                            0 -1 10 -1.9981656223535538e-03</internalNodes>
                        <leafValues>
                            -9.0725809335708618e-01 3.7545519554267563e-17</leafValues></_>
                    <_>
                        <internalNodes>
                            0 -1 8 2.5275208055973053e-02</internalNodes>
                        <leafValues>
                            -6.4791798591613770e-01 5.7898128032684326e-01</leafValues></_>
                    <_>
                        <internalNodes>
                            0 -1 13 -5.7329982519149780e-02</internalNodes>
                        <leafValues>
                            -1. 2.7973413467407227e-01</leafValues></_>
                    <_>
                        <internalNodes>
                            0 -1 0 -8.3141475915908813e-02</internalNodes>
                        <leafValues>
                            1.3427361845970154e-01 -1.</leafValues></_></weakClassifiers></_></stages>
        <features>
            <_>
                <rects>
                    <_>
                        1 19 18 3 -1.</_>
                    <_>
                        1 20 18 1 2.</_></rects>
                <tilted>0</tilted></_>
            <_>
                <rects>
                    <_>
                        2 1 9 2 -1.</_>
                    <_>
                        5 1 3 2 2.</_></rects>
                <tilted>0</tilted></_>
            <_>
                <rects>
                    <_>
                        2 1 8 6 -1.</_>
                    <_>
                        2 1 4 3 2.</_>
                    <_>
                        6 4 4 3 2.</_></rects>
                <tilted>0</tilted></_>
            <_>
                <rects>
                    <_>
                        3 5 4 3 -1.</_>
                    <_>
                        5 5 2 3 2.</_></rects>
                <tilted>0</tilted></_>
            <_>
                <rects>
                    <_>
                        4 11 2 8 -1.</_>
                    <_>
                        4 11 1 4 2.</_>
                    <_>
                        5 15 1 4 2.</_></rects>
                <tilted>0</tilted></_>
            <_>
                <rects>
                    <_>
                        5 1 4 2 -1.</_>
                    <_>
                        5 1 2 1 2.</_>
                    <_>
                        7 2 2 1 2.</_></rects>
                <tilted>0</tilted></_>
            <_>
                <rects>
                    <_>
                        5 1 8 10 -1.</_>
                    <_>
                        5 6 8 5 2.</_></rects>
                <tilted>0</tilted></_>
            <_>
                <rects>
                    <_>
                        6 0 11 2 -1.</_>
                    <_>
                        6 1 11 1 2.</_></rects>
                <tilted>0</tilted></_>
            <_>
                <rects>
                    <_>
                        6 1 5 4 -1.</_>
                    <_>
                        6 3 5 2 2.</_></rects>
                <tilted>0</tilted></_>
            <_>
                <rects>
                    <_>
                        9 1 3 1 -1.</_>
                    <_>
                        10 1 1 1 2.</_></rects>
                <tilted>0</tilted></_>
            <_>
                <rects>
                    <_>
                        10 2 3 1 -1.</_>
                    <_>
                        11 2 1 1 2.</_></rects>
                <tilted>0</tilted></_>
            <_>
                <rects>
                    <_>
                        10 9 3 6 -1.</_>
                    <_>
                        10 12 3 3 2.</_></rects>
                <tilted>0</tilted></_>
            <_>
                <rects>
                    <_>
                        12 0 11 4 -1.</_>
                    <_>
                        12 2 11 2 2.</_></rects>
                <tilted>0</tilted></_>
            <_>
                <rects>
                    <_>
                        12 14 2 9 -1.</_>
                    <_>
                        12 17 2 3 2.</_></rects>
                <tilted>0</tilted></_></features></cascade>
</opencv_storage>