<?xml version="1.0"?>
<opencv_storage>
    <cascade>
        <stageType>BOOST</stageType>
        <featureType>HAAR</featureType>
        <height>24</height>
        <width>24</width>
        <stageParams>
            <boostType>GAB</boostType>
            <minHitRate>9.9900001287460327e-01</minHitRate>
            <maxFalseAlarm>4.0000000596046448e-01</maxFalseAlarm>
            <weightTrimRate>9.4999999999999996e-01</weightTrimRate>
            <maxDepth>1</maxDepth>
            <maxWeakCount>100</maxWeakCount></stageParams>
        <featureParams>
            <maxCatCount>0</maxCatCount>
            <featSize>1</featSize>
            <mode>BASIC</mode></featureParams>
        <stageNum>2</stageNum>
        <stages>
            <!-- stage 0 -->
            <_>
                <maxWeakCount>3</maxWeakCount>
                <stageThreshold>-1.2037751674652100e+00</stageThreshold>
                <weakClassifiers>
                    <_>
                        <internalNodes>
                            0 -1 3 -4.2719133198261261e-03</internalNodes>
                        <leafValues>
                            -9.8396795988082886e-01 8.0392158031463623e-01</leafValues></_>
                    <_>
                        <internalNodes>
                            0 -1 5 -1.3455915451049805e-01</internalNodes>
                        <leafValues>
                            -9.2876070737838745e-01 8.0467814207077026e-01</leafValues></_>
                    <_>
                        <internalNodes>
                            0 -1 4 -2.4447408504784107e-03</internalNodes>
                        <leafValues>
                            -9.3704706430435181e-01 7.0895344018936157e-01</leafValues></_></weakClassifiers></_>
            <!-- stage 1 -->
            <_>
                <maxWeakCount>3</maxWeakCount>
                <stageThreshold>-1.4073066711425781e+00</stageThreshold>
                <weakClassifiers>
                    <_>
                        <internalNodes>
                            0 -1 2 -2.1479591727256775e-02</internalNodes>
                        <leafValues>
                            6.2376236915588379e-01 -9.6396398544311523e-01</leafValues></_>
                    <_>
                        <internalNodes>
                            0 -1 0 1.9062731415033340e-02</internalNodes>
                        <leafValues>
                            -9.3878418207168579e-01 5.5112665891647339e-01</leafValues></_>
                    <_>
                        <internalNodes>
                            0 -1 1 -7.9567832872271538e-03</internalNodes>
                        <leafValues>
                            4.9544143676757813e-01 -1.</leafValues></_></weakClassifiers></_></stages>
        <features>
            <_>
                <rects>
                    <_>
                        1 0 8 8 -1.</_>
                    <_>
                        1 0 4 4 2.</_>
                    <_>
                        5 4 4 4 2.</_></rects>
                <tilted>0</tilted></_>
            <_>
                <rects>
                    <_>
                        1 0 19 2 -1.</_>
                    <_>
                        1 1 19 1 2.</_></rects>
                <tilted>0</tilted></_>
            <_>
                <rects>
                    <_>
                        2 0 18 2 -1.</_>
                    <_>
                        2 1 18 1 2.</_></rects>
                <tilted>0</tilted></_>
            <_>
                <rects>
                    <_>
                        7 2 6 1 -1.</_>
                    <_>
                        9 2 2 1 2.</_></rects>
                <tilted>0</tilted></_>
            <_>
                <rects>
                    <_>
                        9 2 3 1 -1.</_>
                    <_>
                        10 2 1 1 2.</_></rects>
                <tilted>0</tilted></_>
            <_>
                <rects>
                    <_>
                        10 1 8 15 -1.</_>
                    <_>
                        10 6 8 5 2.</_></rects>
                <tilted>0</tilted></_></features></cascade>
</opencv_storage>